/*!
 * The following copyright notice may not be removed under any circumstances.
 * 
 * Copyright:
 * Copyright (c) , 2008. All rights reserved.
 * 
 * Trademark:
 * Blackout Midnight is a trademark of SURSLY .
 * 
 * Manufacturer:
 * SURSLY _ Tyler Finck
 * 
 * Designer:
 * Tyler Finck
 * 
 * Vendor URL:
 * http://www.sursly.com
 */
Cufon.registerFont({"w":522,"face":{"font-family":"Blackout","font-weight":400,"font-stretch":"normal","units-per-em":"1000","panose-1":"2 0 8 6 0 0 0 2 0 4","ascent":"800","descent":"-200","x-height":"1","bbox":"-45 -792 902 93","underline-thickness":"50","underline-position":"-50","unicode-range":"U+0020-U+00AD"},"glyphs":{" ":{"w":500},"\u00a0":{"w":500},"!":{"d":"171,0r-167,0r0,-168r167,0r0,168xm171,-744r0,517r-168,0r0,-517r168,0","w":235},"$":{"d":"167,-495v1,18,14,33,34,33v93,0,153,54,184,122v11,24,16,51,16,78v0,84,-48,146,-106,177r0,85r-168,0r0,-76v-72,-30,-121,-90,-126,-186r166,0v-1,18,16,34,34,34v18,0,35,-16,34,-34v-1,-19,-13,-33,-34,-33v-93,0,-153,-55,-184,-123v-11,-24,-16,-50,-16,-77v0,-91,58,-160,126,-187r0,-67r168,0r0,76v58,31,106,94,106,178r-166,0v1,-18,-16,-35,-34,-35v-18,0,-35,17,-34,35","w":454},"%":{"d":"649,-744r-437,744r-168,0r437,-744r168,0xm168,-612v53,21,91,87,64,158v-20,53,-88,91,-157,64v-53,-21,-92,-89,-65,-158v20,-53,90,-92,158,-64xm639,-368v53,21,92,87,65,158v-20,53,-90,91,-159,64v-53,-20,-92,-89,-65,-158v21,-52,91,-92,159,-64","w":757},"&":{"d":"408,-628v39,91,-12,194,-82,223r113,114r98,-97r99,100r-97,96r92,93r-103,103r-91,-91v-42,48,-104,87,-188,87v-116,0,-191,-67,-229,-152v-13,-30,-20,-62,-20,-96v0,-94,50,-167,110,-206v-33,-40,-48,-116,-22,-174v27,-59,79,-105,161,-105v81,0,133,46,159,105","w":701},"'":{"d":"-1,-744r167,0r0,168r-53,93r-102,0r53,-93r-65,0r0,-168","w":237},"*":{"d":"378,-612r-99,27r70,70r-77,78r-92,-92r-93,94r-78,-77r73,-73r-100,-27r28,-106r114,30r0,-104r110,0r0,105r116,-31","w":437},"+":{"d":"518,-468r0,168r-175,0r0,175r-168,0r0,-175r-175,0r0,-168r175,0r0,-174r168,0r0,174r175,0","w":588},",":{"d":"1,-168r167,0r0,168r-53,93r-103,0r53,-93r-64,0r0,-168","w":233},"-":{"d":"517,-301r-517,0r0,-168r517,0r0,168","w":586},".":{"d":"167,0r-167,0r0,-168r167,0r0,168","w":229},"0":{"d":"459,-490r-1,261v-2,105,-63,178,-140,211v-55,24,-121,24,-176,0v-76,-34,-142,-98,-142,-200r0,-297v3,-107,62,-176,140,-211v54,-24,124,-24,178,0v80,34,135,106,141,212r-1,0","w":507},"1":{"d":"101,-744r168,0r0,744r-168,0r0,-500r-27,28r-119,-119","w":328},"2":{"d":"223,-576v-34,0,-63,28,-62,62r-168,0v3,-108,63,-177,141,-212v76,-34,177,-12,227,28v50,41,92,96,92,184v0,72,-29,119,-67,160r-166,186r231,0r0,168r-447,0r0,-168r272,-314v25,-41,-6,-94,-53,-94","w":511},"3":{"d":"409,-372v42,45,67,134,41,210v-31,92,-101,162,-220,162v-109,0,-177,-63,-212,-141v-12,-28,-18,-58,-18,-90r168,0v-1,34,28,64,62,63v36,-2,60,-26,62,-62v1,-34,-28,-59,-62,-58r-106,0r0,-168r106,0v34,1,63,-24,62,-58v-2,-37,-26,-61,-62,-62v-34,-1,-63,28,-62,62r-168,0v3,-107,62,-177,140,-212v75,-35,179,-12,228,28v50,41,92,96,92,184v0,60,-22,107,-51,142","w":504},"4":{"d":"495,-456r0,168r-90,0r0,288r-168,0r0,-288r-245,0r0,-168r245,-286r0,-2r168,0r0,288r90,0","w":540},"5":{"d":"230,-349v-34,0,-63,28,-62,62r-168,0r0,-287r-1,0r0,-168r447,0r0,168r-278,0r0,65v126,-29,237,29,276,119v20,46,16,98,16,160v0,109,-62,178,-141,213v-55,24,-125,24,-179,0v-78,-35,-137,-104,-140,-213r168,0v-1,34,28,63,62,63v33,0,66,-29,66,-63r0,-57v0,-34,-28,-62,-66,-62","w":509},"6":{"d":"231,-579v-35,0,-63,32,-63,63r0,66v130,-33,234,37,274,131v24,55,25,124,0,179v-36,78,-103,141,-211,141v-107,0,-177,-61,-213,-137v-12,-27,-18,-55,-18,-86r0,-306v4,-103,67,-167,143,-201v55,-24,122,-24,177,0v79,35,138,104,141,213r-168,0v1,-34,-28,-63,-62,-63","w":511},"7":{"d":"1,-744r473,0r0,168r-311,576r-168,0r310,-576r-304,0r0,-168","w":520},"8":{"d":"408,-372v47,50,70,153,34,232v-36,78,-104,140,-212,140v-108,0,-177,-62,-212,-140v-12,-28,-18,-58,-18,-90v0,-61,23,-106,52,-142v-47,-50,-70,-153,-34,-232v36,-78,104,-140,212,-140v108,0,177,62,212,140v12,28,18,58,18,90v0,61,-23,106,-52,142","w":505},"9":{"d":"231,-167v34,0,63,-29,62,-63r0,-66v-130,33,-235,-37,-274,-131v-24,-55,-24,-124,0,-179v36,-78,103,-141,212,-141v107,0,175,61,211,137v12,27,19,55,19,86r0,306v-4,102,-66,167,-142,201v-55,24,-123,24,-177,0v-78,-35,-138,-104,-141,-213r168,0v-1,34,28,63,62,63","w":511},":":{"d":"0,-132r0,-168r167,0r0,168r-167,0xm0,-633r167,0r0,168r-167,0r0,-168","w":262},";":{"d":"0,-134r0,-168r166,0r0,168r-53,93r-102,0r53,-93r-64,0xm0,-635r166,0r0,168r-166,0r0,-168","w":245},"=":{"d":"517,-482r-517,0r0,-168r517,0r0,168xm517,-134r-517,0r0,-168r517,0r0,168","w":598},"?":{"d":"92,-168r167,0r0,168r-167,0r0,-168xm229,-576v-37,0,-73,29,-72,64r-166,0v3,-109,66,-176,145,-212v56,-24,127,-25,182,0v78,36,141,103,141,212v0,130,-91,181,-175,228v-19,11,-28,26,-26,54r-166,0v-10,-138,85,-176,164,-232v19,-14,35,-23,36,-50v2,-34,-29,-64,-63,-64","w":505},"@":{"d":"411,-221v-88,19,-155,-27,-182,-90v-27,-62,0,-136,33,-169v36,-36,110,-62,170,-34v55,25,94,72,94,151v0,10,7,19,13,21r0,175v-55,-1,-98,-24,-128,-54xm175,-371v1,87,54,153,120,180v44,18,88,21,133,8r132,132v-81,56,-235,67,-333,22v-124,-55,-226,-167,-226,-342v0,-174,101,-286,227,-342v89,-39,200,-39,288,0v90,38,159,108,198,197v20,45,29,94,29,145r-176,0v-2,-92,-53,-151,-119,-181v-78,-36,-176,-2,-216,42v-31,33,-57,79,-57,139xm539,-342v16,0,28,-13,28,-29r176,0v-2,96,-55,157,-125,188v-25,11,-51,16,-79,16r0,-175","w":781},"A":{"d":"490,0r-100,-288r-138,0r-100,288r-181,0r258,-744r184,0r258,744r-181,0","w":722},"B":{"d":"430,-546v0,82,-48,146,-106,175v78,35,135,149,90,252v-30,69,-89,120,-186,120r-228,0r0,-744r233,0v93,3,151,53,181,120v10,24,16,50,16,77","w":495},"C":{"d":"166,-248v20,56,86,102,158,70v42,-19,73,-61,74,-121r168,0v-2,139,-77,232,-176,277v-68,31,-155,31,-224,0v-97,-44,-177,-136,-177,-271v0,-97,-9,-195,22,-267v44,-101,130,-184,267,-184v137,0,225,85,267,186v14,36,21,74,21,114r-168,0v-1,-60,-31,-104,-74,-122v-89,-37,-167,29,-167,122v0,67,-9,143,9,196","w":623},"D":{"d":"498,-514v37,89,39,196,0,284v-56,127,-168,228,-348,230r-150,0r0,-744v111,2,211,-7,294,28v90,38,167,113,204,202","w":581},"E":{"d":"456,-576r-288,0r0,120r212,0r0,168r-212,0r0,120r288,0r0,168r-456,0r0,-744r456,0r0,168"},"F":{"d":"457,-576r-288,0r0,120r212,0r0,168r-212,0r0,288r-168,0r0,-744r456,0r0,168"},"G":{"d":"413,-38v-61,41,-167,52,-245,16v-97,-46,-176,-136,-176,-271v0,-97,-10,-195,22,-267v44,-100,129,-184,267,-184v136,0,225,85,267,186v14,36,21,74,21,114r-168,0v-1,-60,-31,-104,-74,-122v-90,-37,-167,29,-167,122v0,88,-12,188,36,238v29,31,89,53,136,26v16,-9,30,-20,41,-35r-94,0r0,-155r290,0r-1,370r-155,0r0,-38","w":650},"H":{"d":"367,-744r168,0r0,744r-168,0r0,-288r-199,0r0,288r-168,0r0,-744r168,0r0,288r199,0r0,-288","w":614},"I":{"d":"168,-744r0,744r-168,0r0,-744r168,0","w":239},"J":{"d":"230,-168v34,0,64,-29,63,-63r0,-513r168,0r0,517v-5,106,-63,174,-142,209v-55,24,-125,24,-179,0v-78,-35,-137,-104,-140,-213r168,0v-1,34,28,63,62,63","w":530},"K":{"d":"527,-744r-317,373r316,371r-168,0r-190,-211r0,211r-168,0r0,-744r168,0r0,213r191,-213r168,0","w":561},"L":{"d":"168,-168r199,0r0,168r-367,0r0,-744r168,0r0,576","w":431},"M":{"d":"689,-744r0,744r-168,0r0,-260r-91,260r-168,0r-93,-268r0,268r-168,0r0,-744r171,0r174,502r175,-502r168,0","w":761},"N":{"d":"381,-744r168,0r0,744r-170,0r-210,-416r0,416r-168,0r0,-744r171,0r209,415r0,-415","w":604},"O":{"d":"576,-470v0,106,11,209,-22,286v-43,101,-129,185,-267,185v-136,0,-222,-84,-265,-184v-33,-77,-23,-183,-23,-287v0,-123,84,-209,177,-251v68,-31,155,-31,224,0v94,43,176,128,176,251","w":639},"P":{"d":"226,-744v109,2,179,62,214,141v24,55,24,125,0,180v-35,79,-104,138,-214,141r-58,0r0,282r-168,0r0,-744r226,0","w":497},"Q":{"d":"438,-42v-76,49,-176,59,-262,20v-98,-44,-176,-136,-176,-274r0,-174v11,-123,83,-209,176,-251v69,-31,155,-31,224,0v94,42,177,128,177,251v0,110,12,223,-28,299r92,171r-180,0","w":639},"R":{"d":"459,-513v0,98,-58,172,-127,206r141,307r-173,0r-130,-282r-2,0r0,282r-168,0r0,-744r227,0v109,3,179,62,214,141v12,28,18,58,18,90"},"S":{"d":"168,-514v-1,34,28,58,62,58v108,0,177,60,212,137v34,73,14,172,-24,222v-41,53,-99,97,-188,97v-109,0,-177,-63,-212,-141v-12,-28,-18,-58,-18,-90r168,0v-1,34,28,64,62,63v36,-2,60,-26,62,-62v1,-34,-28,-58,-62,-58v-108,0,-177,-60,-212,-137v-34,-72,-14,-172,24,-222v41,-53,99,-97,188,-97v109,0,177,63,212,141v12,28,18,58,18,89r-168,0v1,-34,-28,-63,-62,-62v-36,2,-60,25,-62,62"},"T":{"d":"497,-744r0,168r-169,0r0,576r-168,0r0,-576r-169,0r0,-168r506,0","w":551},"U":{"d":"578,-297v-4,136,-78,229,-176,274v-69,31,-155,31,-224,0v-98,-45,-177,-138,-177,-274r0,-448r168,0r0,445v1,60,31,104,74,122v90,37,167,-29,167,-122r0,-445r168,0r0,448","w":637},"V":{"d":"525,-744r168,0r-259,744r-170,0r-259,-744r168,0r176,506","w":722},"W":{"d":"734,-744r168,0r-181,744r-171,0r-98,-404r-98,404r-171,0r-181,-744r168,0r99,404r98,-404r171,0r98,404","w":963},"X":{"d":"570,-744r-200,372r200,372r-168,0r-116,-216r-116,216r-168,0r200,-372r-200,-372r168,0r116,216r116,-216r168,0","w":631},"Y":{"d":"562,-744r-200,372r0,372r-168,0r0,-372r-201,-372r168,0r117,216r116,-216r168,0","w":600},"Z":{"d":"485,-744r0,168r-290,408r290,0r0,168r-485,0r0,-168r289,-408r-289,0r0,-168r485,0","w":555},"`":{"d":"-1,-744r167,0r0,168r-53,93r-102,0r53,-93r-65,0r0,-168","w":237},"a":{"d":"490,0r-100,-288r-138,0r-100,288r-181,0r258,-744r184,0r258,744r-181,0","w":722},"b":{"d":"430,-546v0,82,-48,146,-106,175v78,35,135,149,90,252v-30,69,-89,120,-186,120r-228,0r0,-744r233,0v93,3,151,53,181,120v10,24,16,50,16,77","w":495},"c":{"d":"166,-248v20,56,86,102,158,70v42,-19,73,-61,74,-121r168,0v-2,139,-77,232,-176,277v-68,31,-155,31,-224,0v-97,-44,-177,-136,-177,-271v0,-97,-9,-195,22,-267v44,-101,130,-184,267,-184v137,0,225,85,267,186v14,36,21,74,21,114r-168,0v-1,-60,-31,-104,-74,-122v-89,-37,-167,29,-167,122v0,67,-9,143,9,196","w":623},"d":{"d":"498,-514v37,89,39,196,0,284v-56,127,-168,228,-348,230r-150,0r0,-744v111,2,211,-7,294,28v90,38,167,113,204,202","w":581},"e":{"d":"456,-576r-288,0r0,120r212,0r0,168r-212,0r0,120r288,0r0,168r-456,0r0,-744r456,0r0,168"},"f":{"d":"457,-576r-288,0r0,120r212,0r0,168r-212,0r0,288r-168,0r0,-744r456,0r0,168"},"g":{"d":"413,-38v-61,41,-167,52,-245,16v-97,-46,-176,-136,-176,-271v0,-97,-10,-195,22,-267v44,-100,129,-184,267,-184v136,0,225,85,267,186v14,36,21,74,21,114r-168,0v-1,-60,-31,-104,-74,-122v-90,-37,-167,29,-167,122v0,88,-12,188,36,238v29,31,89,53,136,26v16,-9,30,-20,41,-35r-94,0r0,-155r290,0r-1,370r-155,0r0,-38","w":650},"h":{"d":"367,-744r168,0r0,744r-168,0r0,-288r-199,0r0,288r-168,0r0,-744r168,0r0,288r199,0r0,-288","w":614},"i":{"d":"168,-744r0,744r-168,0r0,-744r168,0","w":239},"j":{"d":"230,-168v34,0,64,-29,63,-63r0,-513r168,0r0,517v-5,106,-63,174,-142,209v-55,24,-125,24,-179,0v-78,-35,-137,-104,-140,-213r168,0v-1,34,28,63,62,63","w":530},"k":{"d":"527,-744r-317,373r316,371r-168,0r-190,-211r0,211r-168,0r0,-744r168,0r0,213r191,-213r168,0","w":561},"l":{"d":"168,-168r199,0r0,168r-367,0r0,-744r168,0r0,576","w":431},"m":{"d":"689,-744r0,744r-168,0r0,-260r-91,260r-168,0r-93,-268r0,268r-168,0r0,-744r171,0r174,502r175,-502r168,0","w":761},"n":{"d":"381,-744r168,0r0,744r-170,0r-210,-416r0,416r-168,0r0,-744r171,0r209,415r0,-415","w":604},"o":{"d":"576,-470v0,106,11,209,-22,286v-43,101,-129,185,-267,185v-136,0,-222,-84,-265,-184v-33,-77,-23,-183,-23,-287v0,-123,84,-209,177,-251v68,-31,155,-31,224,0v94,43,176,128,176,251","w":639},"p":{"d":"226,-744v109,2,179,62,214,141v24,55,24,125,0,180v-35,79,-104,138,-214,141r-58,0r0,282r-168,0r0,-744r226,0","w":497},"q":{"d":"438,-42v-76,49,-176,59,-262,20v-98,-44,-176,-136,-176,-274r0,-174v11,-123,83,-209,176,-251v69,-31,155,-31,224,0v94,42,177,128,177,251v0,110,12,223,-28,299r92,171r-180,0","w":639},"r":{"d":"459,-513v0,98,-58,172,-127,206r141,307r-173,0r-130,-282r-2,0r0,282r-168,0r0,-744r227,0v109,3,179,62,214,141v12,28,18,58,18,90"},"s":{"d":"168,-514v-1,34,28,58,62,58v108,0,177,60,212,137v34,73,14,172,-24,222v-41,53,-99,97,-188,97v-109,0,-177,-63,-212,-141v-12,-28,-18,-58,-18,-90r168,0v-1,34,28,64,62,63v36,-2,60,-26,62,-62v1,-34,-28,-58,-62,-58v-108,0,-177,-60,-212,-137v-34,-72,-14,-172,24,-222v41,-53,99,-97,188,-97v109,0,177,63,212,141v12,28,18,58,18,89r-168,0v1,-34,-28,-63,-62,-62v-36,2,-60,25,-62,62"},"t":{"d":"497,-744r0,168r-169,0r0,576r-168,0r0,-576r-169,0r0,-168r506,0","w":551},"u":{"d":"578,-297v-4,136,-78,229,-176,274v-69,31,-155,31,-224,0v-98,-45,-177,-138,-177,-274r0,-448r168,0r0,445v1,60,31,104,74,122v90,37,167,-29,167,-122r0,-445r168,0r0,448","w":637},"v":{"d":"525,-744r168,0r-259,744r-170,0r-259,-744r168,0r176,506","w":722},"w":{"d":"734,-744r168,0r-181,744r-171,0r-98,-404r-98,404r-171,0r-181,-744r168,0r99,404r98,-404r171,0r98,404","w":963},"x":{"d":"570,-744r-200,372r200,372r-168,0r-116,-216r-116,216r-168,0r200,-372r-200,-372r168,0r116,216r116,-216r168,0","w":631},"y":{"d":"562,-744r-200,372r0,372r-168,0r0,-372r-201,-372r168,0r117,216r116,-216r168,0","w":600},"z":{"d":"485,-744r0,168r-290,408r290,0r0,168r-485,0r0,-168r289,-408r-289,0r0,-168r485,0","w":555},"\u00ad":{"d":"517,-301r-517,0r0,-168r517,0r0,168","w":586}}});
