/*!
 * The following copyright notice may not be removed under any circumstances.
 * 
 * Copyright:
 * Copyright (c) 2008 by Tyler Finck . All rights reserved.
 * 
 * Trademark:
 * Blackout 2 AM is a trademark of Tyler Finck.
 * 
 * Description:
 * Copyright (c) 2008 by . All rights reserved.
 * 
 * Manufacturer:
 * Sursly
 * 
 * Designer:
 * Tyler Finck
 * 
 * Vendor URL:
 * http://www.sursly.com
 */
Cufon.registerFont({"w":441,"face":{"font-family":"Blackout","font-weight":400,"font-stretch":"normal","units-per-em":"1000","panose-1":"2 0 5 6 0 0 0 2 0 4","ascent":"750","descent":"-250","bbox":"-19 -840 793 1","underline-thickness":"50","underline-position":"-50","unicode-range":"U+0020-U+00AD"},"glyphs":{" ":{"w":500},"\u00a0":{"w":500},"!":{"d":"-8,-840r223,0r0,840r-223,0r0,-840xm35,-728r0,416r135,0r0,-416r-135,0xm170,-129r0,-135r-134,0r0,135r134,0","w":207},"$":{"d":"401,-840r0,840r-406,0r0,-840r406,0xm273,-197v62,-28,110,-122,73,-205v-26,-56,-74,-97,-154,-99v-11,0,-22,-13,-22,-27v0,-14,13,-28,27,-28v15,0,28,13,28,28r134,0v0,-67,-40,-119,-86,-143r0,-62r-135,0r0,55v-72,24,-129,121,-90,212v24,57,75,97,154,99v12,0,23,13,23,27v0,15,-13,28,-28,28v-14,0,-27,-14,-27,-28r-134,0v0,72,47,129,102,150r0,61r135,0r0,-68","w":394},"%":{"d":"634,-840r0,840r-643,0r0,-840r643,0xm224,-533v-1,-70,-67,-115,-136,-89v-34,13,-59,43,-59,89v0,58,39,96,97,98v53,2,99,-45,98,-98xm199,-129r352,-599r-135,0r-352,599r135,0xm395,-336v-2,53,45,99,98,98v70,-1,115,-67,89,-136v-13,-34,-43,-59,-89,-59v-58,0,-96,39,-98,97","w":631},"&":{"d":"590,-840r0,840r-599,0r0,-840r599,0xm242,-134v67,0,118,-32,152,-70r73,74r84,-84r-75,-74r79,-78r-81,-81r-78,79r-91,-92v57,-23,96,-105,66,-180v-24,-61,-104,-107,-183,-74v-48,20,-86,63,-86,129v0,35,12,65,29,85v-67,40,-115,149,-73,244v31,68,90,122,184,122","w":580},"'":{"d":"-7,-840r223,0r0,840r-223,0r0,-840xm172,-592r0,-135r-134,0r0,135r52,0r-43,75r82,0","w":209},"*":{"d":"-9,-840r395,0r0,840r-395,0r0,-840xm330,-587r-57,-57r80,-21r-23,-86r-93,25r0,-85r-89,0r0,85r-92,-25r-22,86r80,21r-59,59r63,62r76,-75r73,73","w":380},"+":{"d":"-10,-840r523,0r0,840r-523,0r0,-840xm460,-367r0,-135r-141,0r0,-141r-135,0r0,141r-141,0r0,135r141,0r0,141r135,0r0,-141r141,0","w":504},",":{"d":"-7,-840r223,0r0,840r-223,0r0,-840xm173,-129r0,-135r-135,0r0,135r52,0r-42,75r82,0","w":211},"-":{"d":"-19,-840r523,0r0,840r-523,0r0,-840xm449,-367r0,-135r-416,0r0,135r416,0","w":491},".":{"d":"-7,-840r223,0r0,840r-223,0r0,-840xm172,-129r0,-135r-134,0r0,135r134,0","w":209},"0":{"d":"447,-840r0,840r-456,0r0,-840r456,0xm408,-305r0,-238v-3,-90,-51,-147,-116,-176v-77,-34,-170,-2,-209,41v-30,33,-57,76,-57,135r0,247v4,84,56,139,118,167v76,35,169,2,208,-41v29,-32,56,-78,56,-135","w":437},"1":{"d":"-9,-840r336,0r0,840r-336,0r0,-840xm275,-114r0,-621r-140,0r-122,128r99,99r23,-23r0,417r140,0","w":316},"2":{"d":"449,-840r0,840r-459,0r0,-840r459,0xm221,-594v39,0,71,47,44,78r-226,261r0,140r372,0r0,-140r-193,0r139,-155v42,-41,72,-114,47,-189v-26,-78,-84,-136,-183,-136v-90,0,-148,53,-177,118v-10,23,-15,48,-15,75r140,0v-1,-28,24,-52,52,-52","w":444},"3":{"d":"439,-840r0,840r-450,0r0,-840r450,0xm215,-255v-28,1,-52,-24,-51,-52r-140,0v2,90,52,149,117,178v63,29,148,10,189,-23v42,-34,77,-83,77,-155v0,-50,-18,-88,-42,-117v34,-38,55,-111,33,-175v-26,-78,-84,-136,-183,-136v-89,0,-147,53,-176,118v-10,23,-15,48,-15,75r140,0v-1,-28,23,-53,51,-52v29,1,52,21,52,51v1,29,-23,49,-52,49r-88,0r0,140r88,0v28,-1,53,20,52,48v0,29,-23,51,-52,51","w":432},"4":{"d":"-10,-840r497,0r0,840r-497,0r0,-840xm450,-354r0,-140r-76,0r0,-241r-139,0r0,2r-205,239r0,140r205,0r0,240r139,0r0,-240r76,0","w":478},"5":{"d":"456,-840r0,840r-468,0r0,-840r468,0xm224,-255v-29,0,-53,-23,-52,-52r-140,0v2,90,52,148,117,177v76,34,170,1,210,-41v40,-42,56,-101,56,-186v0,-94,-44,-146,-111,-175v-37,-15,-90,-19,-132,-7r0,-54r232,0r0,-140r-372,0r0,378r140,0v-1,-28,24,-51,52,-51v32,0,55,24,55,52r0,47v1,27,-28,52,-55,52","w":444},"6":{"d":"454,-840r0,840r-463,0r0,-840r463,0xm404,-381v-34,-79,-119,-135,-228,-110r0,-55v-1,-28,24,-51,52,-51v27,0,53,24,52,51r139,0v-2,-89,-52,-147,-117,-176v-45,-20,-103,-20,-148,0v-63,29,-118,81,-118,167r0,254v3,88,53,142,118,171v77,34,168,0,209,-41v44,-45,73,-135,41,-210","w":448},"7":{"d":"-8,-840r463,0r0,840r-463,0r0,-840xm424,-595r0,-139v-21,1,-47,0,-66,0r-328,0r0,139r253,0r-258,481r140,0","w":450},"8":{"d":"449,-840r0,840r-462,0r0,-840r462,0xm70,-424v-40,40,-59,128,-28,193v31,65,85,117,176,117v89,0,147,-52,176,-117v29,-65,12,-153,-28,-193v39,-41,58,-129,28,-194v-29,-65,-87,-116,-176,-116v-90,0,-146,52,-176,116v-31,65,-11,153,28,194"},"9":{"d":"451,-840r0,840r-463,0r0,-840r463,0xm219,-255v-29,0,-53,-23,-52,-52r-140,0v2,90,51,150,117,177v109,45,218,-18,252,-98v10,-22,15,-45,15,-69r0,-255v-3,-87,-53,-142,-118,-170v-46,-19,-104,-20,-149,0v-65,30,-117,86,-117,176v0,90,52,147,117,177v39,16,83,20,127,7r0,55v1,28,-24,52,-52,52"},":":{"d":"-6,-840r223,0r0,840r-223,0r0,-840xm172,-129r0,-135r-134,0r0,135r134,0xm172,-397r0,-135r-134,0r0,135r134,0","w":212},";":{"d":"-5,-840r223,0r0,840r-223,0r0,-840xm175,-129r0,-135r-134,0r0,135r52,0r-43,75r82,0xm175,-397r0,-135r-134,0r0,135r134,0","w":213},"=":{"d":"-10,-840r523,0r0,840r-523,0r0,-840xm460,-229r0,-135r-417,0r0,135r417,0xm460,-509r0,-136r-417,0r0,136r417,0","w":500},"?":{"d":"469,-840r0,840r-479,0r0,-840r479,0xm257,-264r-134,0r0,135r134,0r0,-135xm233,-593v38,0,70,50,39,78v-50,47,-150,75,-149,176r0,25r134,0v0,-22,4,-36,20,-44v69,-36,141,-81,141,-184v0,-87,-50,-142,-113,-170v-75,-33,-167,-2,-207,39v-30,31,-56,75,-56,131r134,0v-1,-28,27,-51,57,-51","w":462},"@":{"d":"675,-840r0,840r-684,0r0,-840r684,0xm372,-311v25,24,53,45,98,45v77,0,130,-43,152,-100v40,-105,-17,-219,-76,-275v-51,-48,-118,-88,-211,-88v-141,0,-229,82,-275,183v-30,67,-32,153,-4,221v45,108,131,194,279,194v58,0,113,-18,152,-42r-106,-106v-35,13,-81,7,-111,-7v-52,-25,-93,-70,-93,-144v0,-74,42,-123,97,-146v91,-38,179,15,206,84v7,19,13,40,13,62v0,22,-36,36,-34,7v3,-60,-31,-101,-75,-121v-49,-22,-110,-1,-136,26v-28,29,-48,87,-27,136v22,51,79,89,151,71","w":669},"A":{"d":"-8,-839r634,0r0,839r-634,0r0,-839xm444,-114r151,0r-215,-620r-153,0r-215,620r150,0r84,-240r115,0","w":619},"B":{"d":"426,-839r0,839r-432,0r0,-839r432,0xm301,-424v64,-28,113,-125,75,-210v-25,-57,-75,-99,-155,-100r-190,0r0,620r194,0v77,-2,126,-44,151,-100v37,-85,-11,-181,-75,-210","w":415},"C":{"d":"537,-839r0,839r-546,0r0,-839r546,0xm27,-359v3,172,167,295,333,226v83,-35,146,-115,148,-230r-140,0v0,75,-66,132,-140,101v-36,-15,-61,-51,-61,-101v0,-74,-12,-158,29,-199v17,-17,40,-32,71,-32v63,0,97,46,101,109r140,0v-2,-145,-108,-249,-241,-249v-132,0,-237,105,-240,247r0,128","w":529},"D":{"d":"539,-838r0,839r-541,0r0,-839r541,0xm182,-113v100,0,168,-38,222,-90v54,-52,91,-124,91,-220v0,-147,-87,-241,-193,-287v-69,-31,-152,-22,-245,-23r0,620r125,0","w":531},"E":{"d":"-8,-839r458,0r0,839r-458,0r0,-839xm409,-594r0,-140r-380,0r0,620r380,0r0,-140r-240,0r0,-100r177,0r0,-140r-177,0r0,-100r240,0"},"F":{"d":"-3,-839r470,0r0,839r-470,0r0,-839xm429,-594r0,-140r-380,0r0,620r140,0r0,-240r177,0r0,-140r-177,0r0,-100r240,0","w":458},"G":{"d":"525,-839r0,839r-530,0r0,-839r530,0xm493,-114r1,-309r-241,0r0,129r78,0v-20,32,-73,53,-117,32v-35,-17,-61,-51,-61,-101v0,-74,-12,-158,29,-199v17,-17,40,-32,71,-32v63,0,97,46,101,109r140,0v-2,-115,-65,-195,-148,-230v-166,-69,-331,54,-333,228r0,128v4,141,109,244,241,245v44,0,79,-14,110,-32r0,32r129,0","w":522},"H":{"d":"-6,-839r528,0r0,839r-528,0r0,-839xm474,-114r0,-620r-140,0r0,240r-166,0r0,-240r-140,0r0,620r140,0r0,-240r166,0r0,240r140,0","w":516},"I":{"d":"-13,-839r239,0r0,839r-239,0r0,-839xm175,-114r0,-620r-140,0r0,620r140,0","w":220},"J":{"d":"437,-839r0,839r-445,0r0,-839r445,0xm208,-254v-29,0,-53,-23,-52,-52r-140,0v2,90,52,148,117,177v46,20,104,20,149,0v65,-29,118,-86,118,-174r0,-431r-140,0r0,428v1,28,-24,52,-52,52","w":429},"K":{"d":"-6,-839r495,0r0,839r-495,0r0,-839xm467,-114r-264,-309r265,-311r-140,0r-159,178r0,-178r-140,0r0,620r140,0r0,-175r158,175r140,0","w":478},"L":{"d":"-8,-839r428,0r0,839r-428,0r0,-839xm380,-114r0,-140r-198,0r0,-480r-140,0r0,620r338,0","w":408},"M":{"d":"-8,-839r668,0r0,839r-668,0r0,-839xm610,-114r1,-620r-141,0r-145,419r-145,-419r-142,0r0,620r140,0r0,-223r77,223r140,0r75,-216r0,216r140,0","w":654},"N":{"d":"-9,-839r539,0r0,839r-539,0r0,-839xm489,-114r0,-620r-140,0r0,346r-174,-346r-143,0r0,620r140,0r0,-346r175,346r142,0","w":519},"O":{"d":"550,-839r0,839r-557,0r0,-839r557,0xm514,-506v0,-103,-71,-172,-148,-208v-58,-26,-128,-26,-186,0v-78,36,-147,106,-147,209v0,86,-8,175,19,239v36,84,108,153,222,153v112,0,186,-69,221,-153v28,-66,19,-152,19,-240","w":542},"P":{"d":"450,-839r0,839r-454,0r0,-839r454,0xm175,-349v48,0,88,2,124,-15v66,-29,118,-86,118,-177v0,-91,-53,-149,-118,-178v-24,-10,-49,-15,-76,-15r-188,0r0,620r140,0r0,-235","w":443},"Q":{"d":"580,-839r0,839r-587,0r0,-839r587,0xm171,-132v70,32,163,20,217,-17r20,35r150,0r-77,-142v34,-67,23,-155,23,-250v0,-103,-70,-172,-147,-208v-58,-27,-128,-27,-186,0v-78,36,-147,106,-147,209v0,86,-9,174,18,239v25,59,72,108,129,134","w":577},"R":{"d":"456,-839r0,839r-469,0r0,-839r469,0xm306,-370v78,-32,135,-145,90,-246v-29,-66,-86,-118,-178,-118r-188,0r0,620r140,0r0,-235r1,0r108,235r145,0","w":452},"S":{"d":"451,-838r0,839r-464,0r0,-839r464,0xm207,-253v-29,1,-53,-23,-52,-52r-140,0v2,90,52,147,117,177v63,29,148,11,190,-23v41,-33,76,-83,76,-154v0,-89,-52,-145,-117,-173v-23,-10,-48,-15,-74,-15v-28,1,-53,-20,-52,-48v0,-29,23,-51,52,-51v27,-1,52,24,51,51r140,0v-3,-89,-52,-148,-117,-177v-63,-29,-148,-11,-189,23v-42,34,-77,82,-77,154v0,89,52,144,117,173v23,10,48,15,75,15v28,0,52,21,51,49v0,29,-22,51,-51,51","w":436},"T":{"d":"-13,-838r493,0r0,839r-493,0r0,-839xm443,-593r0,-140r-422,0r0,140r141,0r0,480r140,0r0,-480r141,0","w":475},"U":{"d":"547,-838r0,839r-559,0r0,-839r559,0xm306,-260v-73,31,-141,-26,-140,-102r0,-371r-140,0r0,374v4,113,66,190,148,227v57,26,129,26,186,0v82,-37,147,-113,147,-227r0,-374r-140,0r0,371v-1,50,-25,87,-61,102","w":531},"V":{"d":"-8,-839r629,0r0,839r-629,0r0,-839xm375,-114r215,-620r-140,0r-146,422r-146,-422r-140,0r215,620r142,0","w":610},"W":{"d":"-4,-839r797,0r0,839r-797,0r0,-839xm617,-114r151,-620r-140,0r-82,337r-82,-337r-142,0r-82,337r-82,-337r-140,0r151,620r142,0r82,-336r82,336r142,0","w":788},"X":{"d":"-9,-839r552,0r0,839r-552,0r0,-839xm504,-114r-166,-310r166,-310r-140,0r-96,180r-97,-180r-140,0r167,310r-167,310r140,0r97,-180r96,180r140,0","w":537},"Y":{"d":"-11,-839r548,0r0,839r-548,0r0,-839xm332,-423r167,-311r-140,0r-97,180r-97,-180r-140,0r167,310r0,310r140,0r0,-309","w":528},"Z":{"d":"-9,-839r480,0r0,839r-480,0r0,-839xm430,-594r0,-140r-403,0r0,140r240,0r-240,340r0,140r403,0r0,-140r-242,0","w":464},"_":{"d":"513,-840r0,840r-523,0r0,-840r523,0","w":503},"`":{"d":"-7,-840r223,0r0,840r-223,0r0,-840xm172,-592r0,-135r-134,0r0,135r52,0r-43,75r82,0","w":209},"a":{"d":"-8,-839r634,0r0,839r-634,0r0,-839xm444,-114r151,0r-215,-620r-153,0r-215,620r150,0r84,-240r115,0","w":619},"b":{"d":"426,-839r0,839r-432,0r0,-839r432,0xm301,-424v64,-28,113,-125,75,-210v-25,-57,-75,-99,-155,-100r-190,0r0,620r194,0v77,-2,126,-44,151,-100v37,-85,-11,-181,-75,-210","w":415},"c":{"d":"537,-839r0,839r-546,0r0,-839r546,0xm27,-359v3,172,167,295,333,226v83,-35,146,-115,148,-230r-140,0v0,75,-66,132,-140,101v-36,-15,-61,-51,-61,-101v0,-74,-12,-158,29,-199v17,-17,40,-32,71,-32v63,0,97,46,101,109r140,0v-2,-145,-108,-249,-241,-249v-132,0,-237,105,-240,247r0,128","w":529},"d":{"d":"539,-838r0,839r-541,0r0,-839r541,0xm182,-113v100,0,168,-38,222,-90v54,-52,91,-124,91,-220v0,-147,-87,-241,-193,-287v-69,-31,-152,-22,-245,-23r0,620r125,0","w":531},"e":{"d":"-8,-839r458,0r0,839r-458,0r0,-839xm409,-594r0,-140r-380,0r0,620r380,0r0,-140r-240,0r0,-100r177,0r0,-140r-177,0r0,-100r240,0"},"f":{"d":"-3,-839r470,0r0,839r-470,0r0,-839xm429,-594r0,-140r-380,0r0,620r140,0r0,-240r177,0r0,-140r-177,0r0,-100r240,0","w":458},"g":{"d":"525,-839r0,839r-530,0r0,-839r530,0xm493,-114r1,-309r-241,0r0,129r78,0v-20,32,-73,53,-117,32v-35,-17,-61,-51,-61,-101v0,-74,-12,-158,29,-199v17,-17,40,-32,71,-32v63,0,97,46,101,109r140,0v-2,-115,-65,-195,-148,-230v-166,-69,-331,54,-333,228r0,128v4,141,109,244,241,245v44,0,79,-14,110,-32r0,32r129,0","w":522},"h":{"d":"-6,-839r528,0r0,839r-528,0r0,-839xm474,-114r0,-620r-140,0r0,240r-166,0r0,-240r-140,0r0,620r140,0r0,-240r166,0r0,240r140,0","w":516},"i":{"d":"-13,-839r239,0r0,839r-239,0r0,-839xm175,-114r0,-620r-140,0r0,620r140,0","w":220},"j":{"d":"437,-839r0,839r-445,0r0,-839r445,0xm208,-254v-29,0,-53,-23,-52,-52r-140,0v2,90,52,148,117,177v46,20,104,20,149,0v65,-29,118,-86,118,-174r0,-431r-140,0r0,428v1,28,-24,52,-52,52","w":429},"k":{"d":"-6,-839r495,0r0,839r-495,0r0,-839xm467,-114r-264,-309r265,-311r-140,0r-159,178r0,-178r-140,0r0,620r140,0r0,-175r158,175r140,0","w":478},"l":{"d":"-8,-839r428,0r0,839r-428,0r0,-839xm380,-114r0,-140r-198,0r0,-480r-140,0r0,620r338,0","w":408},"m":{"d":"-8,-839r668,0r0,839r-668,0r0,-839xm610,-114r1,-620r-141,0r-145,419r-145,-419r-142,0r0,620r140,0r0,-223r77,223r140,0r75,-216r0,216r140,0","w":654},"n":{"d":"-9,-839r539,0r0,839r-539,0r0,-839xm489,-114r0,-620r-140,0r0,346r-174,-346r-143,0r0,620r140,0r0,-346r175,346r142,0","w":519},"o":{"d":"550,-839r0,839r-557,0r0,-839r557,0xm514,-506v0,-103,-71,-172,-148,-208v-58,-26,-128,-26,-186,0v-78,36,-147,106,-147,209v0,86,-8,175,19,239v36,84,108,153,222,153v112,0,186,-69,221,-153v28,-66,19,-152,19,-240","w":542},"p":{"d":"450,-839r0,839r-454,0r0,-839r454,0xm175,-349v48,0,88,2,124,-15v66,-29,118,-86,118,-177v0,-91,-53,-149,-118,-178v-24,-10,-49,-15,-76,-15r-188,0r0,620r140,0r0,-235","w":443},"q":{"d":"580,-839r0,839r-587,0r0,-839r587,0xm171,-132v70,32,163,20,217,-17r20,35r150,0r-77,-142v34,-67,23,-155,23,-250v0,-103,-70,-172,-147,-208v-58,-27,-128,-27,-186,0v-78,36,-147,106,-147,209v0,86,-9,174,18,239v25,59,72,108,129,134","w":577},"r":{"d":"456,-839r0,839r-469,0r0,-839r469,0xm306,-370v78,-32,135,-145,90,-246v-29,-66,-86,-118,-178,-118r-188,0r0,620r140,0r0,-235r1,0r108,235r145,0","w":452},"s":{"d":"451,-838r0,839r-464,0r0,-839r464,0xm207,-253v-29,1,-53,-23,-52,-52r-140,0v2,90,52,147,117,177v63,29,148,11,190,-23v41,-33,76,-83,76,-154v0,-89,-52,-145,-117,-173v-23,-10,-48,-15,-74,-15v-28,1,-53,-20,-52,-48v0,-29,23,-51,52,-51v27,-1,52,24,51,51r140,0v-3,-89,-52,-148,-117,-177v-63,-29,-148,-11,-189,23v-42,34,-77,82,-77,154v0,89,52,144,117,173v23,10,48,15,75,15v28,0,52,21,51,49v0,29,-22,51,-51,51","w":436},"t":{"d":"-13,-838r493,0r0,839r-493,0r0,-839xm443,-593r0,-140r-422,0r0,140r141,0r0,480r140,0r0,-480r141,0","w":475},"u":{"d":"547,-838r0,839r-559,0r0,-839r559,0xm306,-260v-73,31,-141,-26,-140,-102r0,-371r-140,0r0,374v4,113,66,190,148,227v57,26,129,26,186,0v82,-37,147,-113,147,-227r0,-374r-140,0r0,371v-1,50,-25,87,-61,102","w":531},"v":{"d":"-8,-839r629,0r0,839r-629,0r0,-839xm375,-114r215,-620r-140,0r-146,422r-146,-422r-140,0r215,620r142,0","w":610},"w":{"d":"-4,-839r797,0r0,839r-797,0r0,-839xm617,-114r151,-620r-140,0r-82,337r-82,-337r-142,0r-82,337r-82,-337r-140,0r151,620r142,0r82,-336r82,336r142,0","w":788},"x":{"d":"-9,-839r552,0r0,839r-552,0r0,-839xm504,-114r-166,-310r166,-310r-140,0r-96,180r-97,-180r-140,0r167,310r-167,310r140,0r97,-180r96,180r140,0","w":537},"y":{"d":"-11,-839r548,0r0,839r-548,0r0,-839xm332,-423r167,-311r-140,0r-97,180r-97,-180r-140,0r167,310r0,310r140,0r0,-309","w":528},"z":{"d":"-9,-839r480,0r0,839r-480,0r0,-839xm430,-594r0,-140r-403,0r0,140r240,0r-240,340r0,140r403,0r0,-140r-242,0","w":464},"\u00ad":{"d":"-19,-840r523,0r0,840r-523,0r0,-840xm449,-367r0,-135r-416,0r0,135r416,0","w":491}}});
